svm_type c_svc
kernel_type rbf
gamma 0.25
nr_class 2
total_sv 349
rho -1.20499
label 1 -1
nr_sv 36 313
SV
1.25 1:-0.514798 2:0.947298 3:0.24 4:-1 5:-0.5 6:-1 
1.25 1:-0.66361 2:0.831888 3:-0.76 4:-1 5:-0.5 6:-0.5 
0.0440393878027114 1:-0.155065 2:0.96531 3:0.533333 4:1 5:-1 6:-1 
1.25 1:-0.50396 2:0.726484 3:-0.8 4:-1 5:-1 6:-1 
0.7913269459737845 1:-0.533972 2:0.876584 3:0.413333 4:-1 5:-0.5 6:-0.5 
1.25 1:-0.740308 2:0.723816 3:0.0266667 4:-1 5:-0.5 6:-0.5 
0.04550010841330645 1:-0.746144 2:0.675117 3:-0.0533333 4:1 5:-0.5 6:-0.5 
1.25 1:-0.434764 2:0.730487 3:-1 4:-1 5:-1 6:-1 
1.25 1:-0.749896 2:0.772515 3:0.106667 4:1 5:-1 6:-1 
1.25 1:-0.36015 2:0.978652 3:-0.226667 4:-1 5:-0.5 6:-1 
0.2997138125152413 1:-0.560233 2:0.783856 3:-0.946667 4:-1 5:-0.5 6:-0.5 
1.25 1:-0.0558566 2:0.334223 3:-1 4:-1 5:-1 6:-1 
1.105232512927092 1:0.0750313 2:0.887925 3:0.413333 4:-1 5:-1 6:-1 
1.25 1:0.0487703 2:0.881254 3:0.44 4:-1 5:-1 6:-1 
1.25 1:-0.45519 2:0.855237 3:0.146667 4:-1 5:-1 6:-1 
1.25 1:-0.324719 2:0.853235 3:-0.573333 4:-1 5:-1 6:-1 
1.25 1:-0.256774 2:0.973316 3:-0.946667 4:-1 5:-1 6:-1 
1.25 1:-0.580659 2:0.8499 3:0.173333 4:-1 5:-0.5 6:-0.5 
1.25 1:-0.310129 2:0.901268 3:-0.813333 4:0.86 5:-1 6:-1 
0.28117474665995 1:-0.506878 2:0.903936 3:-0.36 4:0.98 5:-1 6:-0.5 
1.25 1:-0.268028 2:0.948632 3:-0.413333 4:-1 5:-1 6:-1 
1.25 1:-0.566069 2:0.811207 3:0.44 4:-1 5:-1 6:-1 
1.25 1:-0.0975406 2:0.924616 3:-0.96 4:0.0544075 5:-1 6:-1 
1.25 1:-0.43268 2:0.953969 3:-1 4:-1 5:-1 6:-1 
1.25 1:-0.152147 2:0.716478 3:0.466667 4:-1 5:-1 6:-1 
1.25 1:-0.286786 2:0.851901 3:-0.813333 4:-1 5:-1 6:-1 
1.25 1:-0.48812 2:0.883256 3:-0.333333 4:-1 5:-1 6:-1 
1.25 1:-0.403085 2:0.912608 3:0.24 4:0.0677478 5:-1 6:-1 
0.7932423383066606 1:-0.403918 2:0.867245 3:-0.306667 4:0.0838177 5:-0.5 6:-0.5 
1.25 1:-0.42351 2:0.81521 3:-1 4:-1 5:-1 6:-1 
1.25 1:-0.363485 2:0.821214 3:-0.346667 4:0.264058 5:-1 6:-1 
0.3579975934752331 1:-0.117132 2:0.87525 3:-1 4:-1 5:-1 6:-1 
1.25 1:-0.218841 2:0.931955 3:-0.986667 4:-1 5:-1 6:-1 
1.25 1:-0.128804 2:0.975984 3:0.173333 4:-1 5:-1 6:-1 
1.25 1:-0.0804502 2:0.629086 3:-0.986667 4:-1 5:-1 6:-1 
1.25 1:-0.295123 2:0.618412 3:-1 4:-1 5:-1 6:-1 
-0.125 1:-1 2:-1 3:-1 4:-0.0215082 5:-1 6:-1 
-0.125 1:-1 2:-1 3:-1 4:-1 5:-1 6:-1 
-0.125 1:-1 2:-1 3:-0.813333 4:-1 5:-1 6:-1 
-0.001171085857306797 1:-1 2:-1 3:-0.706667 4:-1 5:-1 6:-1 
-0.125 1:-1 2:-1 3:-0.04 4:0.021249 5:-1 6:-1 
-0.125 1:-1 2:-1 3:0.24 4:0.115574 5:-1 6:-1 
-0.125 1:-1 2:-1 3:0.253333 4:-1 5:-1 6:-1 
-0.125 1:-0.861609 2:0.661775 3:1 4:-1 5:-1 6:-1 
-0.125 1:-0.787411 2:0.779853 3:-0.973333 4:-1 5:-1 6:-1 
-0.125 1:-0.777824 2:0.707805 3:-1 4:-1 5:-1 6:-1 
-0.125 1:-0.766569 2:0.687792 3:-1 4:-1 5:-1 6:-1 
-0.125 1:-0.761567 2:0.763175 3:-0.986667 4:-1 5:-1 6:-1 
-0.125 1:-0.757816 2:0.839226 3:-0.933333 4:0.14253 5:-1 6:-1 
-0.125 1:-0.752397 2:0.818546 3:-1 4:-1 5:-1 6:-1 
-0.125 1:-0.751563 2:0.733823 3:-0.96 4:-1 5:-1 6:-1 
-0.004602973251243384 1:-0.750313 2:0.777185 3:-0.853333 4:-1 5:-1 6:-1 
-0.125 1:-0.747395 2:0.72515 3:-1 4:-1 5:-1 6:-1 
-0.125 1:-0.743643 2:0.646431 3:-0.96 4:-1 5:-1 6:-1 
-0.125 1:-0.742393 2:0.851234 3:-0.973333 4:-1 5:-1 6:-1 
-0.125 1:-0.740308 2:0.693129 3:-1 4:-1 5:-1 6:-1 
-0.125 1:-0.739058 2:0.659773 3:-1 4:-1 5:-1 6:-1 
-0.125 1:-0.734473 2:0.59573 3:-1 4:-1 5:-1 6:-1 
-0.125 1:-0.734473 2:0.801201 3:-0.906667 4:-1 5:-1 6:-1 
-0.125 1:-0.733639 2:0.81521 3:-1 4:-0.154032 5:-1 6:-1 
-0.125 1:-0.726553 2:0.712475 3:-0.853333 4:-1 5:-1 6:-1 
-0.125 1:-0.724052 2:0.793863 3:-0.893333 4:-1 5:-1 6:-1 
-0.125 1:-0.718633 2:0.477652 3:-0.973333 4:-1 5:-1 6:-1 
-0.125 1:-0.710713 2:0.748499 3:-1 4:-1 5:-1 6:-1 
-0.1195677895137565 1:-0.709879 2:0.745163 3:0.453333 4:-1 5:-1 6:-1 
-0.125 1:-0.707378 2:0.793863 3:-0.746667 4:-1 5:-1 6:-1 
-0.125 1:-0.706544 2:0.689793 3:-0.826667 4:-1 5:-1 6:-1 
-0.125 1:-0.704877 2:0.765177 3:-0.893333 4:-1 5:-1 6:-1 
-0.125 1:-0.704877 2:0.932622 3:0.24 4:-1 5:-1 6:-1 
-0.125 1:-0.702793 2:0.671114 3:-0.866667 4:-1 5:-1 6:-1 
-0.125 1:-0.701959 2:0.863909 3:-0.826667 4:-1 5:-1 6:-1 
-0.125 1:-0.701125 2:0.869913 3:-0.76 4:-1 5:-1 6:-1 
-0.125 1:-0.696123 2:0.718479 3:-0.933333 4:-0.178649 5:-1 6:-1 
-0.125 1:-0.694873 2:0.710474 3:-0.906667 4:-0.119521 5:-1 6:-1 
-0.125 1:-0.694456 2:0.741828 3:-0.866667 4:-1 5:-1 6:-1 
-0.125 1:-0.694456 2:0.915944 3:0.213333 4:-1 5:-1 6:-1 
-0.125 1:-0.691538 2:0.760507 3:-0.84 4:-0.0227591 5:-1 6:-1 
-0.125 1:-0.691121 2:0.531688 3:-0.986667 4:-1 5:-1 6:-1 
-0.125 1:-0.691121 2:0.638426 3:-0.84 4:-1 5:-1 6:-1 
-0.002048584581856632 1:-0.689871 2:0.305537 3:-1 4:-0.11331 5:-1 6:-1 
-0.125 1:-0.688203 2:0.799867 3:-1 4:-1 5:-1 6:-1 
-0.125 1:-0.684869 2:0.472315 3:0.346667 4:0.210935 5:-1 6:-1 
-0.125 1:-0.684869 2:0.649767 3:-0.786667 4:-1 5:-1 6:-1 
-0.125 1:-0.684869 2:0.686458 3:-0.906667 4:-1 5:-1 6:-1 
-0.125 1:-0.6807 2:0.689126 3:-0.986667 4:-1 5:-1 6:-1 
-0.125 1:-0.680283 2:0.767845 3:0.306667 4:0.125297 5:-1 6:-1 
-0.125 1:-0.67945 2:0.543029 3:-0.986667 4:-1 5:-1 6:-1 
-0.125 1:-0.678616 2:0.811207 3:-0.853333 4:-1 5:-1 6:-1 
-0.09083701286981585 1:-0.678199 2:0.744496 3:-0.64 4:-1 5:-1 6:-1 
-0.125 1:-0.674448 2:0.763175 3:-0.68 4:0.0953838 5:-1 6:-1 
-0.125 1:-0.67278 2:0.796531 3:-0.853333 4:-1 5:-1 6:-1 
-0.125 1:-0.670696 2:0.847899 3:-1 4:-1 5:-1 6:-1 
-0.125 1:-0.670279 2:0.947298 3:0.266667 4:-0.103369 5:-1 6:-1 
-0.125 1:-0.669446 2:0.717145 3:-0.933333 4:-1 5:-1 6:-1 
-0.125 1:-0.669029 2:0.766511 3:-0.853333 4:-1 5:-1 6:-1 
-0.125 1:-0.666945 2:0.513676 3:-1 4:-1 5:-1 6:-1 
-0.125 1:-0.66486 2:0.828552 3:0.28 4:-1 5:-1 6:-1 
-0.125 1:-0.664444 2:0.777852 3:-0.813333 4:-1 5:-1 6:-1 
-0.125 1:-0.664444 2:0.953302 3:-0.346667 4:-1 5:-1 6:-1 
-0.125 1:-0.664027 2:0.853903 3:-0.813333 4:-0.184401 5:-1 6:-1 
-0.125 1:-0.659441 2:0.740494 3:-0.733333 4:-1 5:-1 6:-1 
-0.125 1:-0.656524 2:0.813876 4:0.17537 5:-1 6:-1 
-0.125 1:-0.656524 2:0.841895 3:0.186667 4:0.187074 5:-1 6:-1 
-0.125 1:-0.656107 2:0.937959 3:-0.893333 4:0.155245 5:-1 6:-1 
-0.125 1:-0.654439 2:0.817211 3:-1 4:-0.106638 5:-1 6:-1 
-0.125 1:-0.652355 2:0.843229 3:-0.72 4:-1 5:-1 6:-1 
-0.125 1:-0.651938 2:0.913276 3:0.28 4:-0.0764145 5:-1 6:-1 
-0.125 1:-0.651938 2:0.923949 3:0.386667 4:-1 5:-1 6:-1 
-0.125 1:-0.651105 2:0.569713 3:-1 4:-1 5:-1 6:-1 
-0.125 1:-0.649854 2:0.698466 3:-0.986667 4:-1 5:-1 6:-1 
-0.125 1:-0.648187 2:0.848566 3:0.04 4:-1 5:-1 6:-1 
-0.125 1:-0.646519 2:0.78519 3:0.32 4:-1 5:-1 6:-1 
-0.125 1:-0.646519 2:0.950634 3:0.133333 4:-1 5:-1 6:-1 
-0.125 1:-0.642768 2:0.804536 3:-0.853333 4:-1 5:-1 6:-1 
-0.125 1:-0.6411 2:0.707805 3:0.346667 4:-1 5:-1 6:-1 
-0.125 1:-0.6411 2:0.93062 3:0.146667 4:-1 5:-1 6:-1 
-0.125 1:-0.640267 2:0.707138 3:-0.133333 4:0.166418 5:-1 6:-1 
-0.125 1:-0.63985 2:0.823215 3:-0.933333 4:-1 5:-1 6:-1 
-0.125 1:-0.637766 2:0.801201 3:-1 4:-1 5:-1 6:-1 
-0.125 1:-0.637349 2:0.444963 3:-0.986667 4:-1 5:-1 6:-1 
-0.125 1:-0.635682 2:0.617745 3:0.453333 4:-1 5:-1 6:-1 
-0.125 1:-0.633597 2:0.923282 3:0.0933333 4:-1 5:-1 6:-1 
-0.125 1:-0.63318 2:0.72515 3:-1 4:-1 5:-1 6:-1 
-0.125 1:-0.629429 2:0.848566 3:0.266667 4:0.258646 5:-1 6:-1 
-0.125 1:-0.629012 2:0.578386 3:-1 4:-1 5:-1 6:-1 
-0.125 1:-0.626928 2:0.850567 3:-0.506667 4:-0.00126539 5:-1 6:-1 
-0.125 1:-0.626511 2:0.757171 3:-0.96 4:-1 5:-1 6:-1 
-0.125 1:-0.626511 2:0.805871 3:0.306667 4:-1 5:-1 6:-1 
-0.125 1:-0.626094 2:0.883923 3:-0.0666667 4:-1 5:-1 6:-1 
-0.125 1:-0.626094 2:0.885924 3:-1 4:-1 5:-1 6:-1 
-0.125 1:-0.625261 2:0.886591 3:-0.426667 4:-1 5:-1 6:-1 
-0.125 1:-0.62401 2:0.951968 3:0.12 4:-1 5:-1 6:-1 
-0.125 1:-0.623593 2:0.782522 3:-0.986667 4:-1 5:-1 6:-1 
-0.125 1:-0.622759 2:0.739827 3:-0.386667 4:-1 5:-1 6:-1 
-0.125 1:-0.619842 2:0.532355 3:0.426667 4:-1 5:-1 6:-1 
-0.125 1:-0.619425 2:0.817879 3:-1 4:-1 5:-1 6:-1 
-0.125 1:-0.619008 2:0.897265 3:-0.666667 4:-1 5:-1 6:-1 
-0.125 1:-0.618174 2:0.747165 3:-0.986667 4:-1 5:-1 6:-1 
-0.125 1:-0.61609 2:0.597732 3:-0.866667 4:-1 5:-1 6:-1 
-0.125 1:-0.61609 2:0.941294 3:-0.213333 4:-1 5:-1 6:-1 
-0.125 1:-0.615673 2:0.719146 3:-0.906667 4:-1 5:-1 6:-1 
-0.125 1:-0.614423 2:0.803202 3:0.266667 4:-1 5:-1 6:-1 
-0.125 1:-0.613589 2:0.87525 3:-0.84 4:-1 5:-1 6:-1 
-0.125 1:-0.612755 2:0.808539 3:-0.866667 4:-0.0893823 5:-1 6:-1 
-0.125 1:-0.611505 2:0.591728 3:-0.826667 4:-1 5:-1 6:-1 
-0.125 1:-0.611505 2:0.892595 3:0.0133333 4:-1 5:-1 6:-1 
-0.125 1:-0.611088 2:0.975317 3:-0.746667 4:-1 5:-1 6:-1 
-0.125 1:-0.610254 2:0.831221 3:0.2 4:0.123288 5:-1 6:-1 
-0.125 1:-0.60817 2:0.875917 3:0.0266667 4:-1 5:-1 6:-1 
-0.125 1:-0.607336 2:0.739159 3:0.146667 4:-1 5:-1 6:-1 
-0.125 1:-0.605669 2:0.718479 3:0.333333 4:-1 5:-1 6:-1 
-0.125 1:-0.603585 2:0.873916 3:0.106667 4:-1 5:-1 6:-1 
-0.125 1:-0.601501 2:0.803869 3:-0.733333 4:-1 5:-1 6:-1 
-0.125 1:-0.60025 2:0.81054 3:0.0266667 4:0.190018 5:-1 6:-1 
-0.125 1:-0.60025 2:0.846564 4:-0.0164112 5:-1 6:-1 
-0.125 1:-0.599833 2:0.556371 3:-0.986667 4:-1 5:-1 6:-1 
-0.125 1:-0.596915 2:0.668446 3:-0.293333 4:-1 5:-1 6:-1 
-0.125 1:-0.596499 2:0.941961 3:-0.12 4:-1 5:-1 6:-1 
-0.125 1:-0.595665 2:0.943963 3:-0.146667 4:-1 5:-1 6:-1 
-0.125 1:-0.594831 2:0.833889 3:-0.0666667 4:-1 5:-1 6:-1 
-0.125 1:-0.59233 2:0.688459 3:0.08 4:0.101858 5:-1 6:-1 
-0.125 1:-0.588162 2:0.835891 3:0.453333 4:-1 5:-1 6:-1 
-0.125 1:-0.587328 2:0.839226 3:0.186667 4:0.368288 5:-1 6:-1 
-0.125 1:-0.586494 2:0.595063 3:0.28 4:-1 5:-1 6:-1 
-0.125 1:-0.586078 2:0.767845 3:-1 4:-1 5:-1 6:-1 
-0.125 1:-0.583576 2:0.851901 3:0.0266667 4:-1 5:-1 6:-1 
-0.125 1:-0.58316 2:0.486991 3:-0.8 4:-1 5:-1 6:-1 
-0.125 1:-0.581909 2:0.783856 3:-1 4:-1 5:-1 6:-1 
-0.125 1:-0.581492 2:0.753169 3:0.413333 4:-1 5:-1 6:-1 
-0.125 1:-0.580659 2:0.835223 3:0.266667 4:0.0636819 5:-1 6:-1 
-0.125 1:-0.57649 2:0.837892 3:-0.413333 4:-1 5:-1 6:-1 
-0.125 1:-0.572739 2:0.66044 3:0.0533333 4:-1 5:-1 6:-1 
-0.125 1:-0.572322 2:0.839226 3:-0.32 4:-0.0808697 5:-1 6:-1 
-0.125 1:-0.571905 2:0.781855 3:-0.6 4:-1 5:-1 6:-1 
-0.125 1:-0.571071 2:0.953302 3:0.466667 4:-1 5:-1 6:-1 
-0.125 1:-0.570238 2:0.893262 3:-0.653333 4:-1 5:-1 6:-1 
-0.125 1:-0.570238 2:0.96064 3:-0.346667 4:0.0218364 5:-1 6:-1 
-0.125 1:-0.568153 2:0.773182 3:-0.506667 4:-1 5:-1 6:-1 
-0.125 1:-0.568153 2:0.90994 3:0.346667 4:-1 5:-1 6:-1 
-0.125 1:-0.566903 2:0.84523 3:-0.0133333 4:-1 5:-1 6:-1 
-0.125 1:-0.564402 2:0.772515 3:-0.0133333 4:-1 5:-1 6:-1 
-0.125 1:-0.563568 2:0.833889 3:-0.546667 4:-0.0136892 5:-1 6:-1 
-0.125 1:-0.561901 2:0.889927 3:-1 4:-1 5:-1 6:-1 
-0.125 1:-0.558983 2:0.546364 3:-0.92 4:0.0132159 5:-1 6:-1 
-0.125 1:-0.558983 2:0.875917 3:-0.32 4:-0.0930634 5:-1 6:-1 
-0.125 1:-0.558149 2:0.767178 3:0.306667 4:-1 5:-1 6:-1 
-0.125 1:-0.556482 2:0.703135 3:0.0133333 4:-0.0476061 5:-1 6:-1 
-0.125 1:-0.555648 2:0.781855 3:0.0933333 4:-1 5:-1 6:-1 
-0.125 1:-0.555648 2:0.903269 3:-0.92 4:-1 5:-1 6:-1 
-0.125 1:-0.554815 2:0.843229 3:-0.746667 4:-1 5:-1 6:-1 
-0.125 1:-0.554398 2:0.917945 3:0.226667 4:-1 5:-1 6:-1 
-0.125 1:-0.553981 2:0.79453 3:0.2 4:-1 5:-1 6:-1 
-0.125 1:-0.553147 2:0.965977 3:0.04 4:-0.104641 5:-1 6:-1 
-0.125 1:-0.552313 2:0.69513 3:-0.213333 4:-1 5:-1 6:-1 
-0.125 1:-0.550646 2:0.873249 3:-0.426667 4:-1 5:-1 6:-1 
-0.125 1:-0.549396 2:0.827218 3:-0.546667 4:0.150956 5:-1 6:-1 
-0.125 1:-0.548562 2:0.952635 3:0.373333 4:-1 5:-1 6:-1 
-0.125 1:-0.548145 2:0.305537 3:0.32 4:-1 5:-1 6:-1 
-0.125 1:-0.546895 2:0.876584 3:0.306667 4:0.0131561 5:-1 6:-1 
-0.125 1:-0.546061 2:0.879253 3:-0.6 4:-1 5:-1 6:-1 
-0.125 1:-0.545644 2:0.773849 3:-0.653333 4:0.0813298 5:-1 6:-1 
-0.125 1:-0.545227 2:0.885257 3:-0.04 4:-0.11446 5:-1 6:-1 
-0.125 1:-0.543143 2:0.791861 3:-0.146667 4:0.249695 5:-1 6:-1 
-0.125 1:-0.543143 2:0.842562 3:0.146667 4:-1 5:-1 6:-1 
-0.125 1:-0.541892 2:0.887925 3:0.133333 4:-1 5:-1 6:-1 
-0.125 1:-0.541059 2:0.87058 3:-0.0666667 4:-0.128264 5:-1 6:-1 
-0.125 1:-0.540225 2:0.693129 3:-0.0266667 4:-1 5:-1 6:-1 
-0.125 1:-0.540225 2:0.866578 3:-0.773333 4:-0.0261766 5:-1 6:-1 
-0.125 1:-0.53689 2:0.768512 3:-0.813333 4:-1 5:-1 6:-1 
-0.125 1:-0.536474 2:0.758506 3:-0.533333 4:-0.0769231 5:-1 6:-1 
-0.125 1:-0.536057 2:0.821214 3:-0.106667 4:-1 5:-1 6:-1 
-0.125 1:-0.535223 2:0.807872 4:-0.108708 5:-1 6:-1 
-0.125 1:-0.534389 2:0.834556 3:0.28 4:-1 5:-1 6:-1 
-0.125 1:-0.532722 2:0.846564 3:-0.84 4:-1 5:-1 6:-1 
-0.125 1:-0.52897 2:0.825884 3:0.106667 4:-1 5:-1 6:-1 
-0.125 1:-0.528137 2:0.938626 3:0.373333 4:-1 5:-1 6:-1 
-0.125 1:-0.52772 2:0.664443 3:0.0933333 4:-1 5:-1 6:-1 
-0.125 1:-0.525219 2:0.748499 3:0.386667 4:-1 5:-1 6:-1 
-0.125 1:-0.525219 2:0.832555 3:0.266667 4:-1 5:-1 6:-1 
-0.125 1:-0.524802 2:0.805871 3:-0.68 4:-0.0677557 5:-1 6:-1 
-0.125 1:-0.523135 2:0.843896 3:-0.986667 4:-1 5:-1 6:-1 
-0.125 1:-0.523135 2:0.861908 3:-0.84 4:-1 5:-1 6:-1 
-0.125 1:-0.522718 2:0.78986 3:-0.88 4:-1 5:-1 6:-1 
-0.125 1:-0.520634 2:0.911941 3:-0.186667 4:-0.189233 5:-1 6:-1 
-0.125 1:-0.518966 2:0.957305 3:0.213333 4:-1 5:-1 6:-1 
-0.125 1:-0.515632 2:0.779186 3:-0.906667 4:-1 5:-1 6:-1 
-0.125 1:-0.512297 2:0.869246 3:-0.733333 4:-1 5:-1 6:-1 
-0.125 1:-0.51188 2:0.697799 3:-1 4:-1 5:-1 6:-1 
-0.125 1:-0.51188 2:0.84056 3:0.266667 4:-0.128494 5:-1 6:-1 
-0.125 1:-0.510629 2:0.841895 3:-0.84 4:-1 5:-1 6:-1 
-0.125 1:-0.508128 2:0.855904 3:-0.0266667 4:-1 5:-1 6:-1 
-0.125 1:-0.508128 2:0.953969 3:-0.586667 4:0.0321678 5:-1 6:-1 
-0.125 1:-0.506461 2:0.75517 3:-0.866667 4:-1 5:-1 6:-1 
-0.125 1:-0.505211 2:0.332889 3:-0.173333 4:-1 5:-1 6:-1 
-0.125 1:-0.504377 2:0.401601 3:0.306667 4:-1 5:-1 6:-1 
-0.125 1:-0.504377 2:0.741161 3:-0.173333 4:-1 5:-1 6:-1 
-0.125 1:-0.50396 2:0.843896 3:-0.0533333 4:-1 5:-1 6:-1 
-0.125 1:-0.50396 2:0.87992 3:0.146667 4:-1 5:-1 6:-1 
-0.125 1:-0.502709 2:0.963976 3:-0.746667 4:-1 5:-1 6:-1 
-0.125 1:-0.502293 2:0.929286 3:-1 4:-0.157483 5:-1 6:-1 
-0.125 1:-0.499792 2:0.466978 3:-0.24 4:0.0818865 5:-1 6:-1 
-0.125 1:-0.499792 2:0.807205 3:-0.8 4:-1 5:-1 6:-1 
-0.125 1:-0.499792 2:0.84056 3:-0.0666667 4:-0.190153 5:-1 6:-1 
-0.125 1:-0.499375 2:0.735157 3:-0.733333 4:-1 5:-1 6:-1 
-0.125 1:-0.498541 2:0.645764 3:-0.12 4:-1 5:-1 6:-1 
-0.125 1:-0.49604 2:0.868579 3:-0.986667 4:-1 5:-1 6:-1 
-0.125 1:-0.492705 2:0.957305 3:-0.386667 4:-0.0746345 5:-1 6:-1 
-0.125 1:-0.492288 2:0.9006 3:-0.96 4:-1 5:-1 6:-1 
-0.125 1:-0.488537 2:0.811875 3:-0.32 4:0.0250916 5:-1 6:-1 
-0.125 1:-0.48812 2:0.87058 3:0.16 4:0.006396 5:-1 6:-1 
-0.125 1:-0.487286 2:0.645097 3:0.36 4:-1 5:-1 6:-1 
-0.125 1:-0.48687 2:0.628419 3:0.306667 4:-1 5:-1 6:-1 
-0.125 1:-0.486036 2:0.629086 3:-1 4:-1 5:-1 6:-1 
-0.125 1:-0.485202 2:0.730487 3:-0.6 4:-0.0608536 5:-1 6:-1 
-0.125 1:-0.4802 2:0.883923 3:-0.586667 4:-0.101116 5:-1 6:-1 
-0.125 1:-0.479366 2:0.806538 3:-0.933333 4:-1 5:-1 6:-1 
-0.125 1:-0.479366 2:0.862575 3:-1 4:-1 5:-1 6:-1 
-0.125 1:-0.478533 2:0.943963 3:0.306667 4:-1 5:-1 6:-1 
-0.125 1:-0.47228 2:0.629086 3:-1 4:0.165215 5:-1 6:-1 
-0.125 1:-0.471446 2:0.647765 3:-0.106667 4:0.168588 5:-1 6:-1 
-0.125 1:-0.470196 2:0.631755 3:0.493333 4:-1 5:-1 6:-1 
-0.125 1:-0.466444 2:0.857238 3:0.12 4:-1 5:-1 6:-1 
-0.125 1:-0.464777 2:0.81988 3:0.186667 4:-1 5:-1 6:-1 
-0.125 1:-0.46436 2:0.865911 3:0.133333 4:-1 5:-1 6:-1 
-0.125 1:-0.462693 2:0.865911 3:-0.706667 4:-1 5:-1 6:-1 
-0.125 1:-0.460192 2:0.837225 3:0.24 4:-0.158633 5:-1 6:-1 
-0.125 1:-0.459358 2:0.864576 3:-0.133333 4:-1 5:-1 6:-1 
-0.125 1:-0.458108 2:0.661775 3:-0.986667 4:0.150325 5:-1 6:-1 
-0.125 1:-0.456023 2:0.38559 3:-0.386667 4:-1 5:-1 6:-1 
-0.125 1:-0.455607 2:0.881921 3:-0.733333 4:-1 5:-1 6:-1 
-0.125 1:-0.452689 2:0.769179 3:-0.0533333 4:-1 5:-1 6:-1 
-0.125 1:-0.452272 2:0.482322 3:-0.986667 4:-1 5:-1 6:-1 
-0.125 1:-0.451855 2:0.735157 3:-0.48 4:-0.122052 5:-1 6:-1 
-0.125 1:-0.451855 2:0.918612 3:0.12 4:0.0636105 5:-1 6:-1 
-0.125 1:-0.448937 2:0.582388 3:-0.466667 4:-1 5:-1 6:-1 
-0.125 1:-0.44727 2:0.708472 3:-0.186667 4:-1 5:-1 6:-1 
-0.125 1:-0.446853 2:0.470314 3:-0.36 4:-1 5:-1 6:-1 
-0.125 1:-0.446436 2:0.66511 3:-0.64 4:0.123079 5:-1 6:-1 
-0.125 1:-0.444769 2:0.552368 3:0.2 4:-1 5:-1 6:-1 
-0.125 1:-0.437266 2:0.917278 3:-0.706667 4:-1 5:-1 6:-1 
-0.125 1:-0.436432 2:0.515677 3:0.306667 4:-1 5:-1 6:-1 
-0.125 1:-0.435598 2:0.652435 3:-1 4:-1 5:-1 6:-1 
-0.125 1:-0.435181 2:0.931955 3:0.08 4:-1 5:-1 6:-1 
-0.125 1:-0.43268 2:0.867912 3:-0.0533333 4:-0.151731 5:-1 6:-1 
-0.125 1:-0.427678 2:0.869246 3:0.12 4:-0.0744277 5:-1 6:-1 
-0.125 1:-0.427678 2:0.956638 3:-0.253333 4:-1 5:-1 6:-1 
-0.125 1:-0.426428 2:0.474983 3:0.16 4:-1 5:-1 6:-1 
-0.125 1:-0.418508 2:0.936624 3:0.24 4:-0.178189 5:-1 6:-1 
-0.125 1:-0.416424 2:0.499666 3:-0.973333 4:-1 5:-1 6:-1 
-0.125 1:-0.414756 2:0.857238 3:-0.786667 4:-1 5:-1 6:-1 
-0.125 1:-0.414756 2:0.863909 3:-0.36 4:-1 5:-1 6:-1 
-0.125 1:-0.414339 2:0.96064 3:0.266667 4:-1 5:-1 6:-1 
-0.125 1:-0.40892 2:0.926618 3:-0.0666667 4:-1 5:-1 6:-1 
-0.125 1:-0.408087 2:0.953302 3:0.48 4:-1 5:-1 6:-1 
-0.125 1:-0.40767 2:0.792528 3:-0.586667 4:-1 5:-1 6:-1 
-0.125 1:-0.40767 2:0.931288 3:-0.92 4:-1 5:-1 6:-1 
-0.125 1:-0.404335 2:0.69513 3:-0.16 4:-0.131715 5:-1 6:-1 
-0.125 1:-0.403918 2:0.891928 3:0.08 4:0.171301 5:-1 6:-1 
-0.125 1:-0.401417 2:0.881254 3:-0.973333 4:-1 5:-1 6:-1 
-0.125 1:-0.398916 2:0.890594 3:-0.88 4:-1 5:-1 6:-1 
-0.125 1:-0.393497 2:0.687792 3:0.186667 4:-1 5:-1 6:-1 
-0.125 1:-0.392664 2:0.975317 3:-0.226667 4:-1 5:-1 6:-1 
-0.125 1:-0.390996 2:0.924616 3:-0.773333 4:-1 5:-1 6:-1 
-0.125 1:-0.389329 2:0.490327 3:-0.973333 4:-1 5:-1 6:-1 
-0.125 1:-0.378491 2:0.973316 3:0.293333 4:-1 5:-1 6:-1 
-0.125 1:-0.377241 2:0.927285 3:-0.706667 4:-1 5:-1 6:-1 
-0.125 1:-0.375573 2:0.873249 3:-0.853333 4:-1 5:-1 6:-1 
-0.125 1:-0.367236 2:0.760507 3:-1 4:-0.169217 5:-1 6:-1 
-0.125 1:-0.364318 2:0.977985 3:0.306667 4:-1 5:-1 6:-1 
-0.125 1:-0.359316 2:0.855237 3:-0.973333 4:-1 5:-1 6:-1 
-0.125 1:-0.354314 2:0.947965 3:0.253333 4:-1 5:-1 6:-1 
-0.125 1:-0.342643 2:0.963976 3:0.253333 4:-1 5:-1 6:-1 
-0.125 1:-0.333055 2:0.937292 3:-0.106667 4:-1 5:-1 6:-1 
-0.125 1:-0.330554 2:0.959973 3:0.306667 4:-1 5:-1 6:-1 
-0.125 1:-0.329721 2:0.647098 3:-1 4:-1 5:-1 6:-1 
-0.125 1:-0.326386 2:0.898599 3:0.2 4:-0.0988151 5:-1 6:-1 
-0.125 1:-0.315131 2:0.88926 3:0.28 4:-0.189923 5:-1 6:-1 
-0.125 1:-0.306794 2:0.978652 3:-0.0133333 4:-1 5:-1 6:-1 
-0.125 1:-0.305127 2:0.619079 3:-0.333333 4:-1 5:-1 6:-1 
-0.125 1:-0.299708 2:0.977318 3:0.2 4:-1 5:-1 6:-1 
-0.125 1:-0.295957 2:0.955971 3:0.453333 4:-1 5:-1 6:-1 
-0.125 1:-0.28887 2:0.546364 3:0.106667 4:-1 5:-1 6:-1 
-0.125 1:-0.28095 2:0.6004 3:-0.973333 4:-1 5:-1 6:-1 
-0.125 1:-0.273864 2:0.983322 3:0.24 4:-1 5:-1 6:-1 
-0.125 1:-0.271363 2:0.977985 3:-0.306667 4:-1 5:-1 6:-1 
-0.125 1:-0.270113 2:0.977318 3:0.4 4:-1 5:-1 6:-1 
-0.125 1:-0.263026 2:0.895264 3:-0.56 4:-0.118371 5:-1 6:-1 
-0.125 1:-0.262193 2:0.296865 3:0.32 4:0.257061 5:-1 6:-1 
-0.125 1:-0.260942 2:0.842562 3:-0.933333 4:-0.141608 5:-1 6:-1 
-0.125 1:-0.255106 2:0.97932 3:-0.186667 4:-1 5:-1 6:-1 
-0.125 1:-0.250104 2:0.901268 3:-1 4:-1 5:-1 6:-1 
-0.125 1:-0.248437 2:0.887258 3:0.213333 4:-0.14851 5:-1 6:-1 
-0.125 1:-0.248437 2:0.912608 3:0.16 4:-1 5:-1 6:-1 
-0.125 1:-0.245519 2:0.979987 3:0.106667 4:0.139292 5:-1 6:-1 
-0.125 1:-0.245102 2:0.984656 3:-0.773333 4:-1 5:-1 6:-1 
-0.125 1:-0.244268 2:0.856571 3:-1 4:-0.1163 5:-1 6:-1 
-0.125 1:-0.237599 2:0.975984 3:-0.16 4:-1 5:-1 6:-1 
-0.125 1:-0.230096 2:0.947298 3:-0.48 4:0.0790723 5:-1 6:-1 
-0.125 1:-0.220509 2:0.985324 4:-1 5:-1 6:-1 
-0.125 1:-0.212172 2:0.984656 3:0.24 4:-1 5:-1 6:-1 
-0.125 1:-0.16882 2:0.551034 3:-0.226667 4:-1 5:-1 6:-1 
-0.125 1:-0.140892 2:0.936624 4:-1 5:-1 6:-1 
-0.125 1:-0.13589 2:0.689793 3:0.106667 4:-0.17934 5:-1 6:-1 
-0.125 1:-0.135473 2:0.919947 3:-0.0666667 4:-1 5:-1 6:-1 
-0.125 1:-0.128804 2:0.97465 3:0.08 4:-0.109472 5:-1 6:-1 
-0.125 1:-0.106294 2:0.991328 3:0.0266667 4:-1 5:-1 6:-1 
-0.125 1:-0.102543 2:0.686458 3:-0.826667 4:-1 5:-1 6:-1 
-0.125 1:-0.0842018 2:1 3:0.106667 4:-1 5:-1 6:-1 
-0.125 1:-0.0825344 2:0.787859 3:-0.986667 4:-1 5:-1 6:-1 
